<?xml version="1.0"?>
<opencv_storage>
<stage12>
  <maxWeakCount>5</maxWeakCount>
  <stageThreshold>-1.4240167140960693e+00</stageThreshold>
  <weakClassifiers>
    <_>
      <internalNodes>
        0 -1 468982 1.1800989508628845e-02</internalNodes>
      <leafValues>
        -8.5823756456375122e-01 1.6393441706895828e-02</leafValues></_>
    <_>
      <internalNodes>
        0 -1 23861 1.3707000762224197e-02</internalNodes>
      <leafValues>
        -5.8720731735229492e-01 3.5231676697731018e-01</leafValues></_>
    <_>
      <internalNodes>
        0 -1 342719 -1.3479430228471756e-02</internalNodes>
      <leafValues>
        5.6576460599899292e-01 -3.3329084515571594e-01</leafValues></_>
    <_>
      <internalNodes>
        0 -1 370970 2.6150250341743231e-03</internalNodes>
      <leafValues>
        -6.7194360494613647e-01 2.5481623411178589e-01</leafValues></_>
    <_>
      <internalNodes>
        0 -1 439699 4.2922407388687134e-02</internalNodes>
      <leafValues>
        1.5203154087066650e-01 -1.</leafValues></_></weakClassifiers></stage12>
</opencv_storage>
