<?xml version="1.0"?>
<opencv_storage>
<stage9>
  <maxWeakCount>6</maxWeakCount>
  <stageThreshold>-1.9819074869155884e+00</stageThreshold>
  <weakClassifiers>
    <_>
      <internalNodes>
        0 -1 685976 -2.9222933575510979e-02</internalNodes>
      <leafValues>
        2.8571428731083870e-02 -8.6666667461395264e-01</leafValues></_>
    <_>
      <internalNodes>
        0 -1 267763 3.5827266983687878e-03</internalNodes>
      <leafValues>
        -8.1893444061279297e-01 -2.3157717660069466e-02</leafValues></_>
    <_>
      <internalNodes>
        0 -1 334076 -1.0793139226734638e-03</internalNodes>
      <leafValues>
        1.6431435942649841e-01 -7.6725727319717407e-01</leafValues></_>
    <_>
      <internalNodes>
        0 -1 335577 -1.6039643436670303e-02</internalNodes>
      <leafValues>
        -9.3377423286437988e-01 2.0225377380847931e-01</leafValues></_>
    <_>
      <internalNodes>
        0 -1 217445 -8.0288480967283249e-04</internalNodes>
      <leafValues>
        6.5321958065032959e-01 -3.2961237430572510e-01</leafValues></_>
    <_>
      <internalNodes>
        0 -1 614190 -6.0322106583043933e-04</internalNodes>
      <leafValues>
        5.4655736684799194e-01 -3.3326214551925659e-01</leafValues></_></weakClassifiers></stage9>
</opencv_storage>
